genomestart 23
trait 1 0.183963 0.167035 0 0.0204148 0.047755 0 0.251392 0.024454 
trait 2 0.312309 0.0394412 0 0.464737 0.243887 0 0.0161107 0.268552 
trait 3 0.166729 0.0302124 0.213803 0.00255333 0 0 0.0122042 0 
node 1 1 1 1
node 2 2 1 1
node 3 2 0 2
node 4 2 0 2
node 5 3 0 2
node 6 2 0 2
node 7 3 0 2
node 8 3 0 0
node 9 1 0 0
node 40 1 0 0
node 41 1 0 0
gene 3 8 3 -5.78113 0 1 -5.78113 0
gene 2 8 4 0.949395 0 2 0.949395 1
gene 3 8 5 -1.93004 0 3 -1.93004 1
gene 3 8 6 1.43637 0 4 1.43637 1
gene 3 8 7 -6.18916 0 5 -6.18916 1
gene 3 9 3 -2.2011 0 6 -2.2011 0
gene 1 9 4 -2.16609 0 7 -2.16609 1
gene 2 9 5 0.274167 0 8 0.274167 1
gene 1 9 6 0.769757 0 9 0.769757 1
gene 2 9 7 -0.49777 0 10 -0.49777 1
gene 3 1 8 4.87057 0 11 4.87057 1
gene 2 1 9 0.862353 0 12 0.862353 1
gene 2 2 8 0.618241 0 13 0.618241 1
gene 1 2 9 -2.2423 0 14 -2.2423 1
gene 2 1 40 3.00332 0 116 3.00332 1
gene 2 40 9 -1.92291 0 117 -1.92291 0
gene 2 40 41 1.99481 0 120 1.99481 1
gene 2 41 9 -0.0816237 0 121 -0.0816237 1
genomeend 23
