genomestart 1
trait 1 0.1 0 0 0 0 0 0 0
trait 2 0.2 0 0 0 0 0 0 0
trait 3 0.3 0 0 0 0 0 0 0
node 1 0 1 1
node 2 0 1 1
node 3 0 1 1
node 4 0 1 1
node 5 0 1 1
node 6 0 1 1
node 7 0 1 1
node 8 0 1 1
node 9 0 0 2
node 10 0 0 2
node 11 0 0 2
node 12 0 0 2
node 13 0 0 2
gene 1 1 9 0.8 0 1 0.8 1
gene 2 2 9 0.8 0 2 0.8 1
gene 3 3 9 0.8 0 3 0.8 1
gene 1 4 9 0.8 0 4 0.8 1
gene 1 5 9 0.8 0 5 0.8 1
gene 2 6 9 0.8 0 6 0.8 1
gene 3 7 9 0.8 0 7 0.8 1
gene 1 8 9 0.8 0 8 0.8 1
gene 1 1 10 0.8 0 9 0.8 1
gene 2 2 10 0.8 0 10 0.8 1
gene 3 3 10 0.8 0 11 0.8 1
gene 1 4 10 0.8 0 12 0.8 1
gene 1 5 10 0.8 0 13 0.8 1
gene 2 6 10 0.8 0 14 0.8 1
gene 3 7 10 0.8 0 15 0.8 1
gene 1 8 10 0.8 0 16 0.8 1
gene 1 1 11 0.8 0 17 0.8 1
gene 2 2 11 0.8 0 18 0.8 1
gene 3 3 11 0.8 0 19 0.8 1
gene 1 4 11 0.8 0 20 0.8 1
gene 1 5 11 0.8 0 21 0.8 1
gene 2 6 11 0.8 0 22 0.8 1
gene 3 7 11 0.8 0 23 0.8 1
gene 1 8 11 0.8 0 24 0.8 1
gene 1 1 12 0.8 0 25 0.8 1
gene 2 2 12 0.8 0 26 0.8 1
gene 3 3 12 0.8 0 27 0.8 1
gene 1 4 12 0.8 0 28 0.8 1
gene 1 5 12 0.8 0 29 0.8 1
gene 2 6 12 0.8 0 30 0.8 1
gene 3 7 12 0.8 0 31 0.8 1
gene 1 8 12 0.8 0 32 0.8 1
gene 1 1 13 0.8 0 33 0.8 1
gene 2 2 13 0.8 0 34 0.8 1
gene 3 3 13 0.8 0 35 0.8 1
gene 1 4 13 0.8 0 36 0.8 1
gene 1 5 13 0.8 0 37 0.8 1
gene 2 6 13 0.8 0 38 0.8 1
gene 3 7 13 0.8 0 39 0.8 1
gene 1 8 13 0.8 0 40 0.8 1
genomeend 1

