genomestart 1
trait 1 0.1 0 0 0 0 0 0 0
trait 2 0.2 0 0 0 0 0 0 0
trait 3 0.3 0 0 0 0 0 0 0
node 1 0 1 1
node 2 0 1 1
node 3 0 1 1
node 4 0 1 1
node 5 0 1 1
node 6 0 1 1
node 7 0 1 1
node 8 0 1 1
node 9 0 0 0
node 10 0 0 0
node 11 0 0 0 
node 12 0 0 0 
node 13 0 0 0
node 14 0 0 0 
node 15 0 0 0
node 16 0 0 0
node 17 0 0 0
node 18 0 0 0
node 19 0 0 0
node 20 0 0 0
node 21 0 0 0
node 22 0 0 0
node 23 0 0 0
node 24 0 0 0
node 25 0 0 0
node 26 0 0 0
node 27 0 0 0
node 28 0 0 0
node 29 0 0 0
node 30 0 0 0
node 31 0 0 0 
node 32 0 0 0
node 33 0 0 0
node 34 0 0 0
node 35 0 0 0
node 36 0 0 0
node 37 0 0 0
node 38 0 0 2
node 39 0 0 2
node 40 0 0 2
node 41 0 0 2
node 42 0 0 2
gene 1 1 9 0.8 0.8 1 0.8 1
gene 2 2 9 0.8 0 2 0.8 1
gene 3 1 10 0.8 0 3 0.8 1
gene 1 2 10 0.8 0 4 0.8 1
gene 1 1 11 0.8 0 5 0.8 1
gene 2 2 11 0.8 0 6 0.8 1
gene 3 1 12 0.8 0 7 0.8 1
gene 1 2 12 0.8 0 8 0.8 1
gene 3 1 13 0.8 0 9 0.8 1
gene 1 2 13 0.8 0 10 0.8 1
gene 3 3 14 0.8 0 11 0.8 1
gene 1 4 14 0.8 0 12 0.8 1
gene 3 3 15 0.8 0 13 0.8 1
gene 1 4 15 0.8 0 14 0.8 1
gene 3 3 16 0.8 0 15 0.8 1
gene 1 4 16 0.8 0 16 0.8 1
gene 3 3 17 0.8 0 17 0.8 1
gene 1 4 17 0.8 0 18 0.8 1
gene 3 3 18 0.8 0 19 0.8 1
gene 1 4 18 0.8 0 20 0.8 1
gene 3 5 19 0.8 0 21 0.8 1
gene 1 6 19 0.8 0 22 0.8 1
gene 3 5 20 0.8 0 23 0.8 1
gene 1 6 20 0.8 0 24 0.8 1
gene 3 5 21 0.8 0 25 0.8 1
gene 1 6 21 0.8 0 26 0.8 1
gene 3 5 22 0.8 0 27 0.8 1
gene 1 6 22 0.8 0 28 0.8 1
gene 3 5 23 0.8 0 29 0.8 1
gene 1 6 23 0.8 0 30 0.8 1
gene 3 7 24 0.8 0 31 0.8 1
gene 1 8 24 0.8 0 32 0.8 1
gene 3 7 25 0.8 0 33 0.8 1
gene 1 8 25 0.8 0 34 0.8 1
gene 3 7 26 0.8 0 35 0.8 1
gene 1 8 26 0.8 0 36 0.8 1
gene 3 7 27 0.8 0 37 0.8 1
gene 1 8 27 0.8 0 38 0.8 1
gene 3 7 28 0.8 0 39 0.8 1
gene 1 8 28 0.8 0 40 0.8 1
gene 1 9 29 0.8 0 41 0.8 1
gene 1 10 29 0.8 0 42 0.8 1
gene 1 11 29 0.8 0 43 0.8 1
gene 1 12 29 0.8 0 44 0.8 1
gene 1 13 29 0.8 0 45 0.8 1
gene 1 14 30 0.8 0 46 0.8 1
gene 1 15 30 0.8 0 47 0.8 1
gene 1 16 30 0.8 0 48 0.8 1
gene 1 17 30 0.8 0 49 0.8 1
gene 1 18 30 0.8 0 50 0.8 1
gene 1 19 31 0.8 0 51 0.8 1
gene 1 20 31 0.8 0 52 0.8 1
gene 1 21 31 0.8 0 53 0.8 1
gene 1 22 31 0.8 0 54 0.8 1
gene 1 23 31 0.8 0 55 0.8 1
gene 1 24 32 0.8 0 56 0.8 1
gene 1 25 32 0.8 0 57 0.8 1
gene 1 26 32 0.8 0 58 0.8 1
gene 1 27 32 0.8 0 59 0.8 1
gene 1 28 32 0.8 0 60 0.8 1
gene 1 29 33 0.8 0 61 0.8 1
gene 1 30 33 0.8 0 62 0.8 1
gene 1 31 33 0.8 0 63 0.8 1
gene 1 32 33 0.8 0 64 0.8 1
gene 1 29 34 0.8 0 65 0.8 1
gene 1 30 34 0.8 0 66 0.8 1
gene 1 31 34 0.8 0 67 0.8 1
gene 1 32 34 0.8 0 68 0.8 1
gene 1 29 35 0.8 0 69 0.8 1
gene 1 30 35 0.8 0 70 0.8 1
gene 1 31 35 0.8 0 8 0.8 1
gene 1 32 35 0.8 0 8 0.8 1
gene 1 29 36 0.8 0 8 0.8 1
gene 1 30 36 0.8 0 8 0.8 1
gene 1 31 36 0.8 0 8 0.8 1
gene 1 32 36 0.8 0 8 0.8 1
gene 1 29 37 0.8 0 8 0.8 1
gene 1 30 37 0.8 0 8 0.8 1
gene 1 31 37 0.8 0 8 0.8 1
gene 1 32 37 0.8 0 8 0.8 1
gene 1 33 38 0.8 0 8 0.8 1
gene 1 34 38 0.8 0 8 0.8 1
gene 1 35 38 0.8 0 8 0.8 1
gene 1 36 38 0.8 0 8 0.8 1
gene 1 37 38 0.8 0 8 0.8 1
gene 1 33 39 0.8 0 8 0.8 1
gene 1 34 39 0.8 0 8 0.8 1
gene 1 35 39 0.8 0 8 0.8 1
gene 1 36 39 0.8 0 8 0.8 1
gene 1 37 39 0.8 0 8 0.8 1
gene 1 33 40 0.8 0 8 0.8 1
gene 1 34 40 0.8 0 8 0.8 1
gene 1 35 40 0.8 0 8 0.8 1
gene 1 36 40 0.8 0 8 0.8 1
gene 1 37 40 0.8 0 8 0.8 1
gene 1 33 41 0.8 0 8 0.8 1
gene 1 34 41 0.8 0 8 0.8 1
gene 1 35 41 0.8 0 8 0.8 1
gene 1 36 41 0.8 0 8 0.8 1
gene 1 37 41 0.8 0 8 0.8 1
gene 1 33 42 0.8 0 8 0.8 1
gene 1 34 42 0.8 0 8 0.8 1
gene 1 35 42 0.8 0 8 0.8 1
gene 1 36 42 0.8 0 8 0.8 1
gene 1 37 42 0.8 0 8 0.8 1
genomeend 1

