genomestart 74
trait 1 0.161449 0.00668131 0.162641 0.338679 0.000125881 0.325071 0.292565 0.142421 
trait 2 0.550071 0.841199 0.775022 0.0247009 0.105139 0 0.0430385 0.355685 
trait 3 0.90731 0.569098 0 0.377009 0.18145 0.27013 0.636194 0.216604 
node 1 3 1 3
node 2 3 1 1
node 3 3 1 1
node 4 2 1 1
node 5 1 1 1
node 6 1 1 1
node 7 1 1 1
node 8 3 1 1
node 9 3 1 1
node 10 3 1 1
node 11 1 1 1
node 12 2 1 1
node 13 2 1 1
node 14 2 0 2
node 15 3 0 2
node 16 3 0 2
node 17 3 0 2
node 25 3 0 0
node 37 1 0 0
node 44 1 0 0
node 51 3 0 0
node 115 1 0 0
node 184 1 0 0
node 244 1 0 0
node 249 2 0 0
node 311 1 0 0
node 364 3 0 0
node 372 1 0 0
node 437 1 0 0
node 440 1 0 0
node 487 1 0 0
node 520 1 0 0
node 529 1 0 0
node 533 1 0 0
node 551 1 0 0
node 568 1 0 0
node 608 1 0 0
node 626 1 0 0
gene 1 1 14 -2.56771 0 1 -2.56771 1
gene 3 1 15 -7.26756 0 2 -7.26756 1
gene 2 1 16 -3.64316 0 3 -3.64316 1
gene 1 1 17 -2.14481 0 4 -2.14481 1
gene 1 2 14 2.46486 0 5 2.46486 1
gene 1 2 15 0.0109873 0 6 0.0109873 0
gene 3 2 16 2.28334 0 7 2.28334 1
gene 1 2 17 5.76283 0 8 5.76283 1
gene 1 3 14 -4.71059 0 9 -4.71059 1
gene 1 3 15 2.53365 0 10 2.53365 1
gene 3 3 16 2.2331 0 11 2.2331 1
gene 1 3 17 -6.41196 0 12 -6.41196 1
gene 3 4 14 0.344584 0 13 0.344584 1
gene 3 4 15 4.62307 0 14 4.62307 1
gene 2 4 16 8 0 15 8 1
gene 1 4 17 -2.33796 0 16 -2.33796 1
gene 1 5 14 0.236609 0 17 0.236609 1
gene 1 5 15 0.288959 0 18 0.288959 1
gene 2 5 16 2.34307 0 19 2.34307 1
gene 3 5 17 2.19366 0 20 2.19366 1
gene 2 6 14 1.86303 0 21 1.86303 1
gene 1 6 15 8 0 22 8 1
gene 1 6 16 -3.10552 0 23 -3.10552 1
gene 1 6 17 5.50291 0 24 5.50291 1
gene 1 7 14 5.47116 0 25 5.47116 1
gene 3 7 15 0.357282 0 26 0.357282 1
gene 3 7 16 4.61747 0 27 4.61747 1
gene 1 7 17 2.75728 0 28 2.75728 1
gene 2 8 14 -0.375641 0 29 -0.375641 1
gene 2 8 15 -4.98359 0 30 -4.98359 1
gene 3 8 16 0.19681 0 31 0.19681 1
gene 3 8 17 3.38036 0 32 3.38036 1
gene 3 9 14 3.3137 0 33 3.3137 1
gene 1 9 15 -1.54034 0 34 -1.54034 1
gene 3 9 16 -3.16592 0 35 -3.16592 1
gene 3 9 17 -3.39345 0 36 -3.39345 1
gene 2 10 14 0.0201989 0 37 0.0201989 1
gene 3 10 15 0.420227 0 38 0.420227 1
gene 2 10 16 -3.34939 0 39 -3.34939 1
gene 2 10 17 1.10108 0 40 1.10108 1
gene 3 11 14 2.71218 0 41 2.71218 1
gene 2 11 15 3.56964 0 42 3.56964 1
gene 1 11 16 4.20425 0 43 4.20425 1
gene 1 11 17 -1.82991 0 44 -1.82991 1
gene 3 12 14 3.66234 0 45 3.66234 1
gene 2 12 15 -1.80492 0 46 -1.80492 1
gene 3 12 16 0.846941 0 47 0.846941 1
gene 1 12 17 7.21124 0 48 7.21124 1
gene 2 13 14 2.52661 0 49 2.52661 1
gene 3 13 15 0.0941464 0 50 0.0941464 1
gene 2 13 16 -0.906193 0 51 -0.906193 1
gene 2 13 17 -7.62228 0 52 -7.62228 1
gene 2 8 25 1.76196 0 83 1.76196 1
gene 1 25 14 -3.49177 0 84 -3.49177 1
gene 1 2 25 -5.07179 0 113 -5.07179 1
gene 3 9 37 8 0 122 8 1
gene 3 37 17 6.77054 0 123 6.77054 1
gene 1 7 44 -0.0699735 0 142 -0.0699735 1
gene 1 44 17 0.668518 0 143 0.668518 1
gene 3 12 51 -7.88437 0 165 -7.88437 1
gene 3 51 16 -0.0273174 0 166 -0.0273174 1
gene 1 15 44 -0.910503 0 178 -0.910503 1
gene 3 5 25 0.652311 0 368 0.652311 1
gene 3 9 44 0.204444 0 386 0.204444 1
gene 3 4 115 -0.76895 0 417 -0.76895 1
gene 3 115 14 1.82486 0 418 1.82486 1
gene 1 51 115 -3.28438 0 505 -3.28438 1
gene 3 12 184 2.24694 0 690 2.24694 1
gene 3 184 14 5.49862 0 691 5.49862 1
gene 2 51 184 5.59476 0 905 5.59476 1
gene 1 6 244 -2.1499 0 935 -2.1499 1
gene 1 244 15 2.48697 0 936 2.48697 1
gene 2 10 184 2.86916 0 954 2.86916 1
gene 3 4 249 5.27016 0 976 5.27016 1
gene 3 249 115 1.71759 0 977 1.71759 1
gene 1 3 311 7.52336 0 1194 7.52336 1
gene 1 311 14 0.655248 0 1195 0.655248 1
gene 2 25 16 -5.60606 0 1217 -5.60606 1
gene 1 7 364 0.699977 0 1410 0.699977 1
gene 1 364 17 -2.1188 0 1411 -2.1188 1
gene 3 9 372 -3.89835 0 1431 -3.89835 1
gene 3 372 44 3.29152 0 1432 3.29152 1
gene 2 184 372 -1.1089 0 1581 -1.1089 1
gene 2 14 364 -1.68412 0 1613 -1.68412 1
gene 2 5 437 0.591147 0 1715 0.591147 1
gene 2 437 16 -4.58086 0 1716 -4.58086 1
gene 2 8 440 -2.30446 0 1730 -2.30446 1
gene 2 440 15 -2.49278 0 1731 -2.49278 0
gene 1 249 15 0.117585 0 1896 0.117585 1
gene 2 244 437 -2.86038 0 1914 -2.86038 1
gene 3 10 487 -1.60411 0 1958 -1.60411 1
gene 3 487 15 -0.270324 0 1959 -0.270324 1
gene 3 311 37 2.2119 0 2041 2.2119 1
gene 2 14 520 -1.15205 0 2095 -1.15205 1
gene 2 520 364 4.42134 0 2096 4.42134 1
gene 3 5 529 0.883472 0 2131 0.883472 1
gene 3 529 17 -2.40033 0 2132 -2.40033 1
gene 1 15 533 4.11781 0 2145 4.11781 1
gene 1 533 44 1.97116 0 2146 1.97116 1
gene 3 115 551 1.80046 0 2230 1.80046 0
gene 3 551 14 0.466359 0 2231 0.466359 1
gene 1 15 520 -0.49003 0 2290 -0.49003 1
gene 2 440 568 -0.740991 0 2296 -0.740991 1
gene 2 568 15 -1.83478 0 2297 -1.83478 1
gene 3 115 608 1.53191 0 2502 1.53191 1
gene 3 608 551 -1.09869 0 2503 -1.09869 1
gene 2 2 244 1.38303 0 2525 1.38303 1
gene 1 487 25 -2.41723 0 2558 -2.41723 1
gene 3 608 626 2.0764 0 2575 2.0764 1
gene 3 626 551 2.82346 0 2576 2.82346 1
gene 2 15 608 -0.571081 0 2851 -0.571081 1
gene 3 311 184 1.76781 0 2872 1.76781 1
genomeend 74
