genomestart 113
trait 1 0.537428 0.12064 0.00349843 0.647747 0.106496 0.0262834 0.146503 0.183395 
node 1 1 1 1
node 2 1 1 1
node 3 1 1 1
node 4 1 1 3
node 5 1 0 2
node 29 1 0 0
node 35 1 0 0
node 86 1 0 0
node 243 1 0 0
node 325 1 0 0
gene 1 1 5 -2.53808 0 1 -2.53808 1
gene 1 2 5 -3.5056 0 2 -3.5056 1
gene 1 3 5 7.66907 0 3 7.66907 1
gene 1 4 5 -3.64803 0 4 -3.64803 1
gene 1 1 29 -4.7547 0 51 -4.7547 1
gene 1 29 5 0.770351 0 52 0.770351 1
gene 1 2 29 -2.17166 0 55 -2.17166 1
gene 1 2 35 0.826714 0 68 0.826714 1
gene 1 35 29 -0.953695 0 69 -0.953695 1
gene 1 4 29 -0.526019 0 70 -0.526019 1
gene 1 3 29 1.49418 0 93 1.49418 1
gene 1 1 35 0.801546 0 213 0.801546 1
gene 1 29 86 -4.28757 0 246 -4.28757 1
gene 1 86 5 2.3376 0 247 2.3376 1
gene 1 35 5 1.62726 0 375 1.62726 1
gene 1 3 35 -4.51738 0 427 -4.51738 1
gene 1 35 86 -0.160405 0 748 -0.473166 1
gene 1 2 243 2.13543 0 769 2.13543 1
gene 1 243 35 -0.361136 0 770 -0.361136 1
gene 1 29 325 1 0 1040 0 1
gene 1 325 5 0.770351 0 1041 0 1
gene 1 1 325 0.738115 0 1058 0.738115 1
gene 1 325 86 0.196784 0 1069 0.196784 1
gene 1 2 325 -0.624305 0 1159 -0.624305 1
genomeend 113
