genomestart 1
trait 1 0.1 0 0 0 0 0 0 0
trait 2 0.1 0 0 0 0 0 0 0
trait 3 0.3 0 0 0 0 0 0 0
node 1 0 1 3
node 2 0 1 1
node 3 0 1 1
node 4 0 1 1
node 5 0 1 1
node 6 0 1 1
node 7 0 1 1
node 8 0 0 2
node 9 0 0 2
node 10 0 0 2
node 11 0 0 2
node 12 0 0 2
gene 1 1 8 0.0 0 1 0 1
gene 2 2 8 0.0 0 2 0 1
gene 3 3 8 0.0 0 3 0 1
gene 1 4 8 0.0 0 4 0 1
gene 2 5 8 0.0 0 5 0 1
gene 3 6 8 0.0 0 6 0 1
gene 1 7 8 0.0 0 7 0 1
gene 2 1 9 0.0 0 8 0 1
gene 3 2 9 0.0 0 9 0 1
gene 1 3 9 0.0 0 10 0 1
gene 2 4 9 0.0 0 11 0 1
gene 3 5 9 0.0 0 12 0 1
gene 1 6 9 0.0 0 13 0 1
gene 2 7 9 0.0 0 14 0 1
gene 3 1 10 0.0 0 15 0 1
gene 1 2 10 0.0 0 16 0 1
gene 2 3 10 0.0 0 17 0 1
gene 3 4 10 0.0 0 18 0 1
gene 1 5 10 0.0 0 19 0 1
gene 2 6 10 0.0 0 20 0 1
gene 3 7 10 0.0 0 21 0 1
gene 1 1 11 0.0 0 22 0 1
gene 2 2 11 0.0 0 23 0 1
gene 3 3 11 0.0 0 24 0 1
gene 1 4 11 0.0 0 25 0 1
gene 2 5 11 0.0 0 26 0 1
gene 3 6 11 0.0 0 27 0 1
gene 1 7 11 0.0 0 28 0 1
gene 2 1 12 0.0 0 29 0 1
gene 3 2 12 0.0 0 30 0 1
gene 1 3 12 0.0 0 31 0 1
gene 2 4 12 0.0 0 32 0 1
gene 3 5 12 0.0 0 33 0 1
gene 1 6 12 0.0 0 34 0 1
gene 2 7 12 0.0 0 35 0 1
genomeend 1
